<?xml version="1.0"?>
<opencv_storage>
<cascade>
  <stageType>BOOST</stageType>
  <featureType>HAAR</featureType>
  <height>24</height>
  <width>24</width>
  <stageParams>
    <boostType>GAB</boostType>
    <minHitRate>9.9500000476837158e-01</minHitRate>
    <maxFalseAlarm>5.0000000000000000e-01</maxFalseAlarm>
    <weightTrimRate>9.4999998807907104e-01</weightTrimRate>
    <maxDepth>1</maxDepth>
    <maxWeakCount>100</maxWeakCount></stageParams>
  <featureParams>
    <maxCatCount>0</maxCatCount>
    <featSize>1</featSize>
    <mode>BASIC</mode></featureParams>
  <stageNum>8</stageNum>
  <stages>
    <!-- stage 0 -->
    <_>
      <maxWeakCount>3</maxWeakCount>
      <stageThreshold>-1.5416250228881836e+00</stageThreshold>
      <weakClassifiers>
        <_>
          <internalNodes>
            0 -1 22 -7.8663259744644165e-02</internalNodes>
          <leafValues>
            5.5555558204650879e-01 -9.9597585201263428e-01</leafValues></_>
        <_>
          <internalNodes>
            0 -1 2 -1.3748772442340851e-01</internalNodes>
          <leafValues>
            6.4389890432357788e-01 -9.7675788402557373e-01</leafValues></_>
        <_>
          <internalNodes>
            0 -1 3 8.0473691225051880e-02</internalNodes>
          <leafValues>
            -9.7450375556945801e-01 4.3110874295234680e-01</leafValues></_></weakClassifiers></_>
    <!-- stage 1 -->
    <_>
      <maxWeakCount>2</maxWeakCount>
      <stageThreshold>-7.9873377084732056e-01</stageThreshold>
      <weakClassifiers>
        <_>
          <internalNodes>
            0 -1 8 -5.3467023372650146e-01</internalNodes>
          <leafValues>
            -2.6470589637756348e-01 -9.8960500955581665e-01</leafValues></_>
        <_>
          <internalNodes>
            0 -1 12 5.0603974610567093e-02</internalNodes>
          <leafValues>
            -1. 1.9087123870849609e-01</leafValues></_></weakClassifiers></_>
    <!-- stage 2 -->
    <_>
      <maxWeakCount>3</maxWeakCount>
      <stageThreshold>-1.5352538824081421e+00</stageThreshold>
      <weakClassifiers>
        <_>
          <internalNodes>
            0 -1 1 -5.6760871410369873e-01</internalNodes>
          <leafValues>
            3.4999999403953552e-01 -9.9393939971923828e-01</leafValues></_>
        <_>
          <internalNodes>
            0 -1 7 -2.4959024786949158e-01</internalNodes>
          <leafValues>
            4.1617318987846375e-01 -9.6375089883804321e-01</leafValues></_>
        <_>
          <internalNodes>
            0 -1 19 1.1094560613855720e-04</internalNodes>
          <leafValues>
            -9.5748776197433472e-01 4.9451041221618652e-01</leafValues></_></weakClassifiers></_>
    <!-- stage 3 -->
    <_>
      <maxWeakCount>4</maxWeakCount>
      <stageThreshold>-2.2149815559387207e+00</stageThreshold>
      <weakClassifiers>
        <_>
          <internalNodes>
            0 -1 0 -6.0694164037704468e-01</internalNodes>
          <leafValues>
            4.2857143282890320e-01 -9.8994976282119751e-01</leafValues></_>
        <_>
          <internalNodes>
            0 -1 11 -3.9866811037063599e-01</internalNodes>
          <leafValues>
            1.7436014115810394e-01 -9.8533076047897339e-01</leafValues></_>
        <_>
          <internalNodes>
            0 -1 1 -5.4008030891418457e-01</internalNodes>
          <leafValues>
            2.6447984576225281e-01 -9.0552133321762085e-01</leafValues></_>
        <_>
          <internalNodes>
            0 -1 17 -1.0165798012167215e-03</internalNodes>
          <leafValues>
            6.6582024097442627e-01 -8.1446737051010132e-01</leafValues></_></weakClassifiers></_>
    <!-- stage 4 -->
    <_>
      <maxWeakCount>4</maxWeakCount>
      <stageThreshold>-2.3810732364654541e+00</stageThreshold>
      <weakClassifiers>
        <_>
          <internalNodes>
            0 -1 1 -5.7574546337127686e-01</internalNodes>
          <leafValues>
            1.5555556118488312e-01 -9.9187815189361572e-01</leafValues></_>
        <_>
          <internalNodes>
            0 -1 4 -4.2288541793823242e-01</internalNodes>
          <leafValues>
            7.9943262040615082e-02 -9.8513931035995483e-01</leafValues></_>
        <_>
          <internalNodes>
            0 -1 21 -1.3551047444343567e-01</internalNodes>
          <leafValues>
            2.8949138522148132e-01 -9.0638595819473267e-01</leafValues></_>
        <_>
          <internalNodes>
            0 -1 6 -3.3473361283540726e-02</internalNodes>
          <leafValues>
            5.0233030319213867e-01 -8.7114727497100830e-01</leafValues></_></weakClassifiers></_>
    <!-- stage 5 -->
    <_>
      <maxWeakCount>4</maxWeakCount>
      <stageThreshold>-2.3750140666961670e+00</stageThreshold>
      <weakClassifiers>
        <_>
          <internalNodes>
            0 -1 24 -3.1388018280267715e-02</internalNodes>
          <leafValues>
            -4.0206184983253479e-01 -9.9785637855529785e-01</leafValues></_>
        <_>
          <internalNodes>
            0 -1 23 -2.6513084769248962e-02</internalNodes>
          <leafValues>
            4.1222572326660156e-02 -9.8458302021026611e-01</leafValues></_>
        <_>
          <internalNodes>
            0 -1 13 -2.6497158408164978e-01</internalNodes>
          <leafValues>
            2.1383242309093475e-01 -8.8760876655578613e-01</leafValues></_>
        <_>
          <internalNodes>
            0 -1 10 4.0808264166116714e-03</internalNodes>
          <leafValues>
            -8.0940735340118408e-01 4.9503409862518311e-01</leafValues></_></weakClassifiers></_>
    <!-- stage 6 -->
    <_>
      <maxWeakCount>3</maxWeakCount>
      <stageThreshold>-1.7367640733718872e+00</stageThreshold>
      <weakClassifiers>
        <_>
          <internalNodes>
            0 -1 18 6.9171851500868797e-03</internalNodes>
          <leafValues>
            -9.4931775331497192e-01 1.</leafValues></_>
        <_>
          <internalNodes>
            0 -1 1 -5.9973227977752686e-01</internalNodes>
          <leafValues>
            4.5886818319559097e-02 -9.4016599655151367e-01</leafValues></_>
        <_>
          <internalNodes>
            0 -1 20 -1.6009517014026642e-02</internalNodes>
          <leafValues>
            1.5271972119808197e-01 -1.</leafValues></_></weakClassifiers></_>
    <!-- stage 7 -->
    <_>
      <maxWeakCount>5</maxWeakCount>
      <stageThreshold>-2.2192611694335938e+00</stageThreshold>
      <weakClassifiers>
        <_>
          <internalNodes>
            0 -1 9 -7.8872386366128922e-03</internalNodes>
          <leafValues>
            -6.3768118619918823e-01 -9.8878926038742065e-01</leafValues></_>
        <_>
          <internalNodes>
            0 -1 15 -3.3892828226089478e-01</internalNodes>
          <leafValues>
            -2.3156142234802246e-01 -9.8204159736633301e-01</leafValues></_>
        <_>
          <internalNodes>
            0 -1 5 -1.8715079873800278e-02</internalNodes>
          <leafValues>
            2.6487800478935242e-01 -8.3679717779159546e-01</leafValues></_>
        <_>
          <internalNodes>
            0 -1 14 -3.8694299291819334e-03</internalNodes>
          <leafValues>
            2.6570200920104980e-01 -1.</leafValues></_>
        <_>
          <internalNodes>
            0 -1 16 -3.9893701672554016e-02</internalNodes>
          <leafValues>
            3.2266491651535034e-01 -1.</leafValues></_></weakClassifiers></_></stages>
  <features>
    <_>
      <rects>
        <_>
          0 0 23 18 -1.</_>
        <_>
          0 9 23 9 2.</_></rects>
      <tilted>0</tilted></_>
    <_>
      <rects>
        <_>
          0 0 24 12 -1.</_>
        <_>
          0 6 24 6 2.</_></rects>
      <tilted>0</tilted></_>
    <_>
      <rects>
        <_>
          0 1 6 10 -1.</_>
        <_>
          0 6 6 5 2.</_></rects>
      <tilted>0</tilted></_>
    <_>
      <rects>
        <_>
          0 1 24 6 -1.</_>
        <_>
          0 3 24 2 3.</_></rects>
      <tilted>0</tilted></_>
    <_>
      <rects>
        <_>
          0 1 24 10 -1.</_>
        <_>
          0 6 24 5 2.</_></rects>
      <tilted>0</tilted></_>
    <_>
      <rects>
        <_>
          0 2 1 8 -1.</_>
        <_>
          0 6 1 4 2.</_></rects>
      <tilted>0</tilted></_>
    <_>
      <rects>
        <_>
          0 2 9 4 -1.</_>
        <_>
          0 4 9 2 2.</_></rects>
      <tilted>0</tilted></_>
    <_>
      <rects>
        <_>
          0 2 24 6 -1.</_>
        <_>
          0 5 24 3 2.</_></rects>
      <tilted>0</tilted></_>
    <_>
      <rects>
        <_>
          0 2 24 21 -1.</_>
        <_>
          0 9 24 7 3.</_></rects>
      <tilted>0</tilted></_>
    <_>
      <rects>
        <_>
          0 4 1 4 -1.</_>
        <_>
          0 6 1 2 2.</_></rects>
      <tilted>0</tilted></_>
    <_>
      <rects>
        <_>
          0 15 1 6 -1.</_>
        <_>
          0 18 1 3 2.</_></rects>
      <tilted>0</tilted></_>
    <_>
      <rects>
        <_>
          1 0 16 18 -1.</_>
        <_>
          1 9 16 9 2.</_></rects>
      <tilted>0</tilted></_>
    <_>
      <rects>
        <_>
          1 8 21 4 -1.</_>
        <_>
          8 8 7 4 3.</_></rects>
      <tilted>0</tilted></_>
    <_>
      <rects>
        <_>
          2 2 16 16 -1.</_>
        <_>
          2 10 16 8 2.</_></rects>
      <tilted>0</tilted></_>
    <_>
      <rects>
        <_>
          3 3 21 2 -1.</_>
        <_>
          10 3 7 2 3.</_></rects>
      <tilted>0</tilted></_>
    <_>
      <rects>
        <_>
          4 0 14 18 -1.</_>
        <_>
          4 9 14 9 2.</_></rects>
      <tilted>0</tilted></_>
    <_>
      <rects>
        <_>
          8 2 4 14 -1.</_>
        <_>
          8 9 4 7 2.</_></rects>
      <tilted>0</tilted></_>
    <_>
      <rects>
        <_>
          10 4 3 1 -1.</_>
        <_>
          11 4 1 1 3.</_></rects>
      <tilted>0</tilted></_>
    <_>
      <rects>
        <_>
          10 4 3 2 -1.</_>
        <_>
          11 4 1 2 3.</_></rects>
      <tilted>0</tilted></_>
    <_>
      <rects>
        <_>
          12 17 3 2 -1.</_>
        <_>
          12 18 3 1 2.</_></rects>
      <tilted>0</tilted></_>
    <_>
      <rects>
        <_>
          13 7 10 3 -1.</_>
        <_>
          18 7 5 3 2.</_></rects>
      <tilted>0</tilted></_>
    <_>
      <rects>
        <_>
          18 1 6 10 -1.</_>
        <_>
          18 6 6 5 2.</_></rects>
      <tilted>0</tilted></_>
    <_>
      <rects>
        <_>
          21 1 3 10 -1.</_>
        <_>
          21 6 3 5 2.</_></rects>
      <tilted>0</tilted></_>
    <_>
      <rects>
        <_>
          22 1 1 10 -1.</_>
        <_>
          22 6 1 5 2.</_></rects>
      <tilted>0</tilted></_>
    <_>
      <rects>
        <_>
          23 0 1 12 -1.</_>
        <_>
          23 6 1 6 2.</_></rects>
      <tilted>0</tilted></_></features></cascade>
</opencv_storage>
