<?xml version="1.0"?>
<opencv_storage>
<cascade>
  <stageType>BOOST</stageType>
  <featureType>HAAR</featureType>
  <height>50</height>
  <width>23</width>
  <stageParams>
    <boostType>GAB</boostType>
    <minHitRate>9.9500000476837158e-01</minHitRate>
    <maxFalseAlarm>5.0000000000000000e-01</maxFalseAlarm>
    <weightTrimRate>9.4999998807907104e-01</weightTrimRate>
    <maxDepth>1</maxDepth>
    <maxWeakCount>100</maxWeakCount></stageParams>
  <featureParams>
    <maxCatCount>0</maxCatCount>
    <featSize>1</featSize>
    <mode>BASIC</mode></featureParams>
  <stageNum>12</stageNum>
  <stages>
    <!-- stage 0 -->
    <_>
      <maxWeakCount>3</maxWeakCount>
      <stageThreshold>-1.3931171894073486e+00</stageThreshold>
      <weakClassifiers>
        <_>
          <internalNodes>
            0 -1 32 -1.1427879333496094e-01</internalNodes>
          <leafValues>
            5.7446807622909546e-01 -9.9395769834518433e-01</leafValues></_>
        <_>
          <internalNodes>
            0 -1 6 -4.0045022964477539e-02</internalNodes>
          <leafValues>
            7.3261928558349609e-01 -9.7429352998733521e-01</leafValues></_>
        <_>
          <internalNodes>
            0 -1 17 9.7947359085083008e-02</internalNodes>
          <leafValues>
            -9.6775448322296143e-01 5.7513409852981567e-01</leafValues></_></weakClassifiers></_>
    <!-- stage 1 -->
    <_>
      <maxWeakCount>3</maxWeakCount>
      <stageThreshold>-1.5485026836395264e+00</stageThreshold>
      <weakClassifiers>
        <_>
          <internalNodes>
            0 -1 5 -6.3825619220733643e-01</internalNodes>
          <leafValues>
            -4.1095890104770660e-02 -9.8965871334075928e-01</leafValues></_>
        <_>
          <internalNodes>
            0 -1 4 -4.3213862180709839e-01</internalNodes>
          <leafValues>
            2.7403655648231506e-01 -9.8545092344284058e-01</leafValues></_>
        <_>
          <internalNodes>
            0 -1 29 2.7715490432456136e-04</internalNodes>
          <leafValues>
            -8.3288055658340454e-01 8.4612888097763062e-01</leafValues></_></weakClassifiers></_>
    <!-- stage 2 -->
    <_>
      <maxWeakCount>2</maxWeakCount>
      <stageThreshold>-1.0719305276870728e+00</stageThreshold>
      <weakClassifiers>
        <_>
          <internalNodes>
            0 -1 23 -8.8220350444316864e-03</internalNodes>
          <leafValues>
            -1.1904761940240860e-01 -9.9372386932373047e-01</leafValues></_>
        <_>
          <internalNodes>
            0 -1 9 2.1437399089336395e-02</internalNodes>
          <leafValues>
            -9.5288294553756714e-01 3.1958562135696411e-01</leafValues></_></weakClassifiers></_>
    <!-- stage 3 -->
    <_>
      <maxWeakCount>4</maxWeakCount>
      <stageThreshold>-2.3337452411651611e+00</stageThreshold>
      <weakClassifiers>
        <_>
          <internalNodes>
            0 -1 36 -2.9951158910989761e-02</internalNodes>
          <leafValues>
            4.2253520339727402e-02 -9.9380803108215332e-01</leafValues></_>
        <_>
          <internalNodes>
            0 -1 7 -6.3639843463897705e-01</internalNodes>
          <leafValues>
            5.2637857198715210e-01 -9.5196276903152466e-01</leafValues></_>
        <_>
          <internalNodes>
            0 -1 3 -4.5655274391174316e-01</internalNodes>
          <leafValues>
            5.1814699172973633e-01 -9.1285914182662964e-01</leafValues></_>
        <_>
          <internalNodes>
            0 -1 14 8.0613508820533752e-02</internalNodes>
          <leafValues>
            -8.8614416122436523e-01 5.2488476037979126e-01</leafValues></_></weakClassifiers></_>
    <!-- stage 4 -->
    <_>
      <maxWeakCount>3</maxWeakCount>
      <stageThreshold>-1.7391430139541626e+00</stageThreshold>
      <weakClassifiers>
        <_>
          <internalNodes>
            0 -1 35 -3.0815707519650459e-02</internalNodes>
          <leafValues>
            -1.5000000596046448e-01 -9.8750001192092896e-01</leafValues></_>
        <_>
          <internalNodes>
            0 -1 34 -1.2054958939552307e-01</internalNodes>
          <leafValues>
            1.2237835675477982e-01 -9.5178049802780151e-01</leafValues></_>
        <_>
          <internalNodes>
            0 -1 10 1.6071744263172150e-02</internalNodes>
          <leafValues>
            -9.5655184984207153e-01 2.0013752579689026e-01</leafValues></_></weakClassifiers></_>
    <!-- stage 5 -->
    <_>
      <maxWeakCount>4</maxWeakCount>
      <stageThreshold>-2.4037601947784424e+00</stageThreshold>
      <weakClassifiers>
        <_>
          <internalNodes>
            0 -1 37 -2.1851710975170135e-02</internalNodes>
          <leafValues>
            -4.4186046719551086e-01 -9.9121844768524170e-01</leafValues></_>
        <_>
          <internalNodes>
            0 -1 2 -1.6790050268173218e-01</internalNodes>
          <leafValues>
            1.8668419122695923e-01 -9.5122754573822021e-01</leafValues></_>
        <_>
          <internalNodes>
            0 -1 36 -2.8670163825154305e-02</internalNodes>
          <leafValues>
            3.2669425010681152e-01 -9.1281765699386597e-01</leafValues></_>
        <_>
          <internalNodes>
            0 -1 12 2.6791286654770374e-03</internalNodes>
          <leafValues>
            -8.0265551805496216e-01 4.5150348544120789e-01</leafValues></_></weakClassifiers></_>
    <!-- stage 6 -->
    <_>
      <maxWeakCount>4</maxWeakCount>
      <stageThreshold>-2.4559059143066406e+00</stageThreshold>
      <weakClassifiers>
        <_>
          <internalNodes>
            0 -1 2 -1.6793474555015564e-01</internalNodes>
          <leafValues>
            -5.1388889551162720e-01 -9.8883926868438721e-01</leafValues></_>
        <_>
          <internalNodes>
            0 -1 0 -2.8419498354196548e-02</internalNodes>
          <leafValues>
            -4.3912336230278015e-02 -9.5764935016632080e-01</leafValues></_>
        <_>
          <internalNodes>
            0 -1 33 -4.7164507210254669e-02</internalNodes>
          <leafValues>
            3.3861345052719116e-01 -8.5472679138183594e-01</leafValues></_>
        <_>
          <internalNodes>
            0 -1 15 -1.3122260570526123e-03</internalNodes>
          <leafValues>
            3.4530946612358093e-01 -9.2169100046157837e-01</leafValues></_></weakClassifiers></_>
    <!-- stage 7 -->
    <_>
      <maxWeakCount>4</maxWeakCount>
      <stageThreshold>-2.3931667804718018e+00</stageThreshold>
      <weakClassifiers>
        <_>
          <internalNodes>
            0 -1 25 -6.2117446213960648e-03</internalNodes>
          <leafValues>
            3.3333334326744080e-01 -9.4520545005798340e-01</leafValues></_>
        <_>
          <internalNodes>
            0 -1 13 -4.8872175812721252e-01</internalNodes>
          <leafValues>
            8.4328718483448029e-02 -9.7182404994964600e-01</leafValues></_>
        <_>
          <internalNodes>
            0 -1 31 -8.8273853063583374e-02</internalNodes>
          <leafValues>
            2.7776667475700378e-01 -8.3467274904251099e-01</leafValues></_>
        <_>
          <internalNodes>
            0 -1 30 -2.1202364936470985e-02</internalNodes>
          <leafValues>
            3.5853555798530579e-01 -9.4438946247100830e-01</leafValues></_></weakClassifiers></_>
    <!-- stage 8 -->
    <_>
      <maxWeakCount>4</maxWeakCount>
      <stageThreshold>-2.4900925159454346e+00</stageThreshold>
      <weakClassifiers>
        <_>
          <internalNodes>
            0 -1 24 1.0145762935280800e-02</internalNodes>
          <leafValues>
            -9.4531250000000000e-01 5.0000000000000000e-01</leafValues></_>
        <_>
          <internalNodes>
            0 -1 1 -1.0992819070816040e-01</internalNodes>
          <leafValues>
            1.6868749260902405e-01 -9.5260637998580933e-01</leafValues></_>
        <_>
          <internalNodes>
            0 -1 18 -4.1666084527969360e-01</internalNodes>
          <leafValues>
            2.3711636662483215e-01 -8.7488299608230591e-01</leafValues></_>
        <_>
          <internalNodes>
            0 -1 16 3.9941911381902173e-05</internalNodes>
          <leafValues>
            -9.8899728059768677e-01 2.8270944952964783e-01</leafValues></_></weakClassifiers></_>
    <!-- stage 9 -->
    <_>
      <maxWeakCount>3</maxWeakCount>
      <stageThreshold>-1.7765588760375977e+00</stageThreshold>
      <weakClassifiers>
        <_>
          <internalNodes>
            0 -1 29 -3.1829939689487219e-04</internalNodes>
          <leafValues>
            1.5789473056793213e-01 -9.4319295883178711e-01</leafValues></_>
        <_>
          <internalNodes>
            0 -1 22 -2.4639049172401428e-01</internalNodes>
          <leafValues>
            -3.0780823901295662e-02 -9.8352354764938354e-01</leafValues></_>
        <_>
          <internalNodes>
            0 -1 26 4.4095683842897415e-03</internalNodes>
          <leafValues>
            -8.0258512496948242e-01 2.2838506102561951e-01</leafValues></_></weakClassifiers></_>
    <!-- stage 10 -->
    <_>
      <maxWeakCount>4</maxWeakCount>
      <stageThreshold>-1.9452903270721436e+00</stageThreshold>
      <weakClassifiers>
        <_>
          <internalNodes>
            0 -1 19 2.2134127095341682e-02</internalNodes>
          <leafValues>
            -9.3798446655273438e-01 1.</leafValues></_>
        <_>
          <internalNodes>
            0 -1 20 1.2894814833998680e-02</internalNodes>
          <leafValues>
            -7.9488843679428101e-01 5.4297280311584473e-01</leafValues></_>
        <_>
          <internalNodes>
            0 -1 8 -2.2974780201911926e-01</internalNodes>
          <leafValues>
            4.0469181537628174e-01 -8.8557678461074829e-01</leafValues></_>
        <_>
          <internalNodes>
            0 -1 28 1.0216904804110527e-02</internalNodes>
          <leafValues>
            -6.1710917949676514e-01 7.9039919376373291e-01</leafValues></_></weakClassifiers></_>
    <!-- stage 11 -->
    <_>
      <maxWeakCount>3</maxWeakCount>
      <stageThreshold>-1.5590368509292603e+00</stageThreshold>
      <weakClassifiers>
        <_>
          <internalNodes>
            0 -1 27 1.8159667961299419e-03</internalNodes>
          <leafValues>
            -9.3986421823501587e-01 1.</leafValues></_>
        <_>
          <internalNodes>
            0 -1 11 4.6802602708339691e-02</internalNodes>
          <leafValues>
            -9.1139435768127441e-01 3.7344485521316528e-02</leafValues></_>
        <_>
          <internalNodes>
            0 -1 21 2.1619305014610291e-02</internalNodes>
          <leafValues>
            -6.5651714801788330e-01 6.0059440135955811e-01</leafValues></_></weakClassifiers></_></stages>
  <features>
    <_>
      <rects>
        <_>
          0 0 1 24 -1.</_>
        <_>
          0 12 1 12 2.</_></rects>
      <tilted>0</tilted></_>
    <_>
      <rects>
        <_>
          0 0 4 24 -1.</_>
        <_>
          0 12 4 12 2.</_></rects>
      <tilted>0</tilted></_>
    <_>
      <rects>
        <_>
          0 0 6 26 -1.</_>
        <_>
          0 13 6 13 2.</_></rects>
      <tilted>0</tilted></_>
    <_>
      <rects>
        <_>
          0 0 19 38 -1.</_>
        <_>
          0 19 19 19 2.</_></rects>
      <tilted>0</tilted></_>
    <_>
      <rects>
        <_>
          0 1 23 22 -1.</_>
        <_>
          0 12 23 11 2.</_></rects>
      <tilted>0</tilted></_>
    <_>
      <rects>
        <_>
          0 1 23 48 -1.</_>
        <_>
          0 17 23 16 3.</_></rects>
      <tilted>0</tilted></_>
    <_>
      <rects>
        <_>
          0 2 2 18 -1.</_>
        <_>
          0 11 2 9 2.</_></rects>
      <tilted>0</tilted></_>
    <_>
      <rects>
        <_>
          0 2 23 48 -1.</_>
        <_>
          0 18 23 16 3.</_></rects>
      <tilted>0</tilted></_>
    <_>
      <rects>
        <_>
          0 4 22 14 -1.</_>
        <_>
          0 11 22 7 2.</_></rects>
      <tilted>0</tilted></_>
    <_>
      <rects>
        <_>
          0 15 10 8 -1.</_>
        <_>
          5 15 5 8 2.</_></rects>
      <tilted>0</tilted></_>
    <_>
      <rects>
        <_>
          0 28 21 6 -1.</_>
        <_>
          7 28 7 6 3.</_></rects>
      <tilted>0</tilted></_>
    <_>
      <rects>
        <_>
          0 32 13 18 -1.</_>
        <_>
          0 38 13 6 3.</_></rects>
      <tilted>0</tilted></_>
    <_>
      <rects>
        <_>
          0 33 1 10 -1.</_>
        <_>
          0 38 1 5 2.</_></rects>
      <tilted>0</tilted></_>
    <_>
      <rects>
        <_>
          1 0 22 24 -1.</_>
        <_>
          1 12 22 12 2.</_></rects>
      <tilted>0</tilted></_>
    <_>
      <rects>
        <_>
          1 1 22 12 -1.</_>
        <_>
          1 5 22 4 3.</_></rects>
      <tilted>0</tilted></_>
    <_>
      <rects>
        <_>
          2 4 12 6 -1.</_>
        <_>
          8 4 6 6 2.</_></rects>
      <tilted>0</tilted></_>
    <_>
      <rects>
        <_>
          2 22 2 4 -1.</_>
        <_>
          2 24 2 2 2.</_></rects>
      <tilted>0</tilted></_>
    <_>
      <rects>
        <_>
          3 12 18 22 -1.</_>
        <_>
          9 12 6 22 3.</_></rects>
      <tilted>0</tilted></_>
    <_>
      <rects>
        <_>
          4 0 17 36 -1.</_>
        <_>
          4 18 17 18 2.</_></rects>
      <tilted>0</tilted></_>
    <_>
      <rects>
        <_>
          4 15 7 6 -1.</_>
        <_>
          4 17 7 2 3.</_></rects>
      <tilted>0</tilted></_>
    <_>
      <rects>
        <_>
          4 37 8 12 -1.</_>
        <_>
          4 37 4 6 2.</_>
        <_>
          8 43 4 6 2.</_></rects>
      <tilted>0</tilted></_>
    <_>
      <rects>
        <_>
          5 44 15 6 -1.</_>
        <_>
          10 44 5 6 3.</_></rects>
      <tilted>0</tilted></_>
    <_>
      <rects>
        <_>
          6 0 11 38 -1.</_>
        <_>
          6 19 11 19 2.</_></rects>
      <tilted>0</tilted></_>
    <_>
      <rects>
        <_>
          8 15 6 22 -1.</_>
        <_>
          8 26 6 11 2.</_></rects>
      <tilted>0</tilted></_>
    <_>
      <rects>
        <_>
          9 15 2 6 -1.</_>
        <_>
          9 17 2 2 3.</_></rects>
      <tilted>0</tilted></_>
    <_>
      <rects>
        <_>
          9 17 2 4 -1.</_>
        <_>
          9 19 2 2 2.</_></rects>
      <tilted>0</tilted></_>
    <_>
      <rects>
        <_>
          9 35 14 6 -1.</_>
        <_>
          9 37 14 2 3.</_></rects>
      <tilted>0</tilted></_>
    <_>
      <rects>
        <_>
          10 10 3 1 -1.</_>
        <_>
          11 10 1 1 3.</_></rects>
      <tilted>0</tilted></_>
    <_>
      <rects>
        <_>
          10 44 12 4 -1.</_>
        <_>
          14 44 4 4 3.</_></rects>
      <tilted>0</tilted></_>
    <_>
      <rects>
        <_>
          11 8 2 2 -1.</_>
        <_>
          11 8 1 1 2.</_>
        <_>
          12 9 1 1 2.</_></rects>
      <tilted>0</tilted></_>
    <_>
      <rects>
        <_>
          11 14 12 6 -1.</_>
        <_>
          17 14 6 6 2.</_></rects>
      <tilted>0</tilted></_>
    <_>
      <rects>
        <_>
          18 0 3 34 -1.</_>
        <_>
          18 17 3 17 2.</_></rects>
      <tilted>0</tilted></_>
    <_>
      <rects>
        <_>
          18 2 5 20 -1.</_>
        <_>
          18 12 5 10 2.</_></rects>
      <tilted>0</tilted></_>
    <_>
      <rects>
        <_>
          18 6 4 12 -1.</_>
        <_>
          18 12 4 6 2.</_></rects>
      <tilted>0</tilted></_>
    <_>
      <rects>
        <_>
          20 0 3 45 -1.</_>
        <_>
          20 15 3 15 3.</_></rects>
      <tilted>0</tilted></_>
    <_>
      <rects>
        <_>
          21 0 1 24 -1.</_>
        <_>
          21 12 1 12 2.</_></rects>
      <tilted>0</tilted></_>
    <_>
      <rects>
        <_>
          22 0 1 24 -1.</_>
        <_>
          22 12 1 12 2.</_></rects>
      <tilted>0</tilted></_>
    <_>
      <rects>
        <_>
          22 3 1 18 -1.</_>
        <_>
          22 12 1 9 2.</_></rects>
      <tilted>0</tilted></_></features></cascade>
</opencv_storage>
